digraph Tree {
node [shape=box] ;
0 [label="X[1] <= 35329875.0\ngini = 0.93\nsamples = 105\nvalue = [8, 6, 5, 8, 6, 7, 4, 7, 8, 10, 6, 8, 5, 10\n7]"] ;
1 [label="X[1] <= 17464372.5\ngini = 0.925\nsamples = 95\nvalue = [8, 6, 5, 8, 6, 7, 4, 7, 8, 10, 6, 8, 5, 0\n7]"] ;
0 -> 1 [labeldistance=2.5, labelangle=45, headlabel="True"] ;
2 [label="X[1] <= 1270152.844\ngini = 0.919\nsamples = 87\nvalue = [8, 6, 5, 0, 6, 7, 4, 7, 8, 10, 6, 8, 5, 0\n7]"] ;
1 -> 2 ;
3 [label="X[1] <= 544697.875\ngini = 0.826\nsamples = 39\nvalue = [0, 0, 0, 0, 6, 0, 4, 0, 8, 0, 6, 8, 0, 0\n7]"] ;
2 -> 3 ;
4 [label="X[0] <= 0.5\ngini = 0.789\nsamples = 32\nvalue = [0, 0, 0, 0, 6, 0, 4, 0, 8, 0, 6, 8, 0, 0\n0]"] ;
3 -> 4 ;
5 [label="X[1] <= 35838.408\ngini = 0.656\nsamples = 16\nvalue = [0, 0, 0, 0, 6, 0, 4, 0, 0, 0, 6, 0, 0, 0\n0]"] ;
4 -> 5 ;
6 [label="X[1] <= 3698.085\ngini = 0.245\nsamples = 7\nvalue = [0, 0, 0, 0, 0, 0, 1, 0, 0, 0, 6, 0, 0, 0\n0]"] ;
5 -> 6 ;
7 [label="gini = 0.0\nsamples = 1\nvalue = [0, 0, 0, 0, 0, 0, 1, 0, 0, 0, 0, 0, 0, 0\n0]"] ;
6 -> 7 ;
8 [label="gini = 0.0\nsamples = 6\nvalue = [0, 0, 0, 0, 0, 0, 0, 0, 0, 0, 6, 0, 0, 0\n0]"] ;
6 -> 8 ;
9 [label="X[1] <= 164130.0\ngini = 0.444\nsamples = 9\nvalue = [0, 0, 0, 0, 6, 0, 3, 0, 0, 0, 0, 0, 0, 0\n0]"] ;
5 -> 9 ;
10 [label="gini = 0.0\nsamples = 6\nvalue = [0, 0, 0, 0, 6, 0, 0, 0, 0, 0, 0, 0, 0, 0\n0]"] ;
9 -> 10 ;
11 [label="gini = 0.0\nsamples = 3\nvalue = [0, 0, 0, 0, 0, 0, 3, 0, 0, 0, 0, 0, 0, 0\n0]"] ;
9 -> 11 ;
12 [label="X[1] <= 226303.461\ngini = 0.5\nsamples = 16\nvalue = [0, 0, 0, 0, 0, 0, 0, 0, 8, 0, 0, 8, 0, 0\n0]"] ;
4 -> 12 ;
13 [label="gini = 0.0\nsamples = 8\nvalue = [0, 0, 0, 0, 0, 0, 0, 0, 8, 0, 0, 0, 0, 0\n0]"] ;
12 -> 13 ;
14 [label="gini = 0.0\nsamples = 8\nvalue = [0, 0, 0, 0, 0, 0, 0, 0, 0, 0, 0, 8, 0, 0\n0]"] ;
12 -> 14 ;
15 [label="gini = 0.0\nsamples = 7\nvalue = [0, 0, 0, 0, 0, 0, 0, 0, 0, 0, 0, 0, 0, 0\n7]"] ;
3 -> 15 ;
16 [label="X[0] <= 0.5\ngini = 0.849\nsamples = 48\nvalue = [8, 6, 5, 0, 0, 7, 0, 7, 0, 10, 0, 0, 5, 0\n0]"] ;
2 -> 16 ;
17 [label="X[1] <= 8037573.0\ngini = 0.625\nsamples = 20\nvalue = [0, 0, 5, 0, 0, 0, 0, 0, 0, 10, 0, 0, 5, 0\n0]"] ;
16 -> 17 ;
18 [label="gini = 0.0\nsamples = 10\nvalue = [0, 0, 0, 0, 0, 0, 0, 0, 0, 10, 0, 0, 0, 0\n0]"] ;
17 -> 18 ;
19 [label="X[1] <= 10538976.0\ngini = 0.5\nsamples = 10\nvalue = [0, 0, 5, 0, 0, 0, 0, 0, 0, 0, 0, 0, 5, 0\n0]"] ;
17 -> 19 ;
20 [label="gini = 0.0\nsamples = 5\nvalue = [0, 0, 5, 0, 0, 0, 0, 0, 0, 0, 0, 0, 0, 0\n0]"] ;
19 -> 20 ;
21 [label="gini = 0.0\nsamples = 5\nvalue = [0, 0, 0, 0, 0, 0, 0, 0, 0, 0, 0, 0, 5, 0\n0]"] ;
19 -> 21 ;
22 [label="X[1] <= 3069514.875\ngini = 0.747\nsamples = 28\nvalue = [8, 6, 0, 0, 0, 7, 0, 7, 0, 0, 0, 0, 0, 0\n0]"] ;
16 -> 22 ;
23 [label="X[1] <= 2507266.0\ngini = 0.49\nsamples = 14\nvalue = [8, 0, 0, 0, 0, 0, 0, 6, 0, 0, 0, 0, 0, 0\n0]"] ;
22 -> 23 ;
24 [label="gini = 0.0\nsamples = 5\nvalue = [5, 0, 0, 0, 0, 0, 0, 0, 0, 0, 0, 0, 0, 0\n0]"] ;
23 -> 24 ;
25 [label="X[1] <= 2849588.25\ngini = 0.444\nsamples = 9\nvalue = [3, 0, 0, 0, 0, 0, 0, 6, 0, 0, 0, 0, 0, 0\n0]"] ;
23 -> 25 ;
26 [label="X[1] <= 2725934.875\ngini = 0.49\nsamples = 7\nvalue = [3, 0, 0, 0, 0, 0, 0, 4, 0, 0, 0, 0, 0, 0\n0]"] ;
25 -> 26 ;
27 [label="X[1] <= 2660820.5\ngini = 0.444\nsamples = 6\nvalue = [2, 0, 0, 0, 0, 0, 0, 4, 0, 0, 0, 0, 0, 0\n0]"] ;
26 -> 27 ;
28 [label="X[1] <= 2559811.375\ngini = 0.5\nsamples = 4\nvalue = [2, 0, 0, 0, 0, 0, 0, 2, 0, 0, 0, 0, 0, 0\n0]"] ;
27 -> 28 ;
29 [label="gini = 0.0\nsamples = 1\nvalue = [0, 0, 0, 0, 0, 0, 0, 1, 0, 0, 0, 0, 0, 0\n0]"] ;
28 -> 29 ;
30 [label="X[1] <= 2577114.875\ngini = 0.444\nsamples = 3\nvalue = [2, 0, 0, 0, 0, 0, 0, 1, 0, 0, 0, 0, 0, 0\n0]"] ;
28 -> 30 ;
31 [label="gini = 0.0\nsamples = 1\nvalue = [1, 0, 0, 0, 0, 0, 0, 0, 0, 0, 0, 0, 0, 0\n0]"] ;
30 -> 31 ;
32 [label="X[1] <= 2618971.5\ngini = 0.5\nsamples = 2\nvalue = [1, 0, 0, 0, 0, 0, 0, 1, 0, 0, 0, 0, 0, 0\n0]"] ;
30 -> 32 ;
33 [label="gini = 0.0\nsamples = 1\nvalue = [0, 0, 0, 0, 0, 0, 0, 1, 0, 0, 0, 0, 0, 0\n0]"] ;
32 -> 33 ;
34 [label="gini = 0.0\nsamples = 1\nvalue = [1, 0, 0, 0, 0, 0, 0, 0, 0, 0, 0, 0, 0, 0\n0]"] ;
32 -> 34 ;
35 [label="gini = 0.0\nsamples = 2\nvalue = [0, 0, 0, 0, 0, 0, 0, 2, 0, 0, 0, 0, 0, 0\n0]"] ;
27 -> 35 ;
36 [label="gini = 0.0\nsamples = 1\nvalue = [1, 0, 0, 0, 0, 0, 0, 0, 0, 0, 0, 0, 0, 0\n0]"] ;
26 -> 36 ;
37 [label="gini = 0.0\nsamples = 2\nvalue = [0, 0, 0, 0, 0, 0, 0, 2, 0, 0, 0, 0, 0, 0\n0]"] ;
25 -> 37 ;
38 [label="X[1] <= 5016630.25\ngini = 0.561\nsamples = 14\nvalue = [0, 6, 0, 0, 0, 7, 0, 1, 0, 0, 0, 0, 0, 0\n0]"] ;
22 -> 38 ;
39 [label="X[1] <= 4259401.375\ngini = 0.54\nsamples = 10\nvalue = [0, 6, 0, 0, 0, 3, 0, 1, 0, 0, 0, 0, 0, 0\n0]"] ;
38 -> 39 ;
40 [label="X[1] <= 3086776.125\ngini = 0.611\nsamples = 6\nvalue = [0, 2, 0, 0, 0, 3, 0, 1, 0, 0, 0, 0, 0, 0\n0]"] ;
39 -> 40 ;
41 [label="gini = 0.0\nsamples = 1\nvalue = [0, 1, 0, 0, 0, 0, 0, 0, 0, 0, 0, 0, 0, 0\n0]"] ;
40 -> 41 ;
42 [label="X[1] <= 3168771.375\ngini = 0.56\nsamples = 5\nvalue = [0, 1, 0, 0, 0, 3, 0, 1, 0, 0, 0, 0, 0, 0\n0]"] ;
40 -> 42 ;
43 [label="X[1] <= 3125689.5\ngini = 0.5\nsamples = 2\nvalue = [0, 0, 0, 0, 0, 1, 0, 1, 0, 0, 0, 0, 0, 0\n0]"] ;
42 -> 43 ;
44 [label="gini = 0.0\nsamples = 1\nvalue = [0, 0, 0, 0, 0, 1, 0, 0, 0, 0, 0, 0, 0, 0\n0]"] ;
43 -> 44 ;
45 [label="gini = 0.0\nsamples = 1\nvalue = [0, 0, 0, 0, 0, 0, 0, 1, 0, 0, 0, 0, 0, 0\n0]"] ;
43 -> 45 ;
46 [label="X[1] <= 3465987.125\ngini = 0.444\nsamples = 3\nvalue = [0, 1, 0, 0, 0, 2, 0, 0, 0, 0, 0, 0, 0, 0\n0]"] ;
42 -> 46 ;
47 [label="gini = 0.0\nsamples = 1\nvalue = [0, 0, 0, 0, 0, 1, 0, 0, 0, 0, 0, 0, 0, 0\n0]"] ;
46 -> 47 ;
48 [label="X[1] <= 3903257.25\ngini = 0.5\nsamples = 2\nvalue = [0, 1, 0, 0, 0, 1, 0, 0, 0, 0, 0, 0, 0, 0\n0]"] ;
46 -> 48 ;
49 [label="gini = 0.0\nsamples = 1\nvalue = [0, 1, 0, 0, 0, 0, 0, 0, 0, 0, 0, 0, 0, 0\n0]"] ;
48 -> 49 ;
50 [label="gini = 0.0\nsamples = 1\nvalue = [0, 0, 0, 0, 0, 1, 0, 0, 0, 0, 0, 0, 0, 0\n0]"] ;
48 -> 50 ;
51 [label="gini = 0.0\nsamples = 4\nvalue = [0, 4, 0, 0, 0, 0, 0, 0, 0, 0, 0, 0, 0, 0\n0]"] ;
39 -> 51 ;
52 [label="gini = 0.0\nsamples = 4\nvalue = [0, 0, 0, 0, 0, 4, 0, 0, 0, 0, 0, 0, 0, 0\n0]"] ;
38 -> 52 ;
53 [label="gini = 0.0\nsamples = 8\nvalue = [0, 0, 0, 8, 0, 0, 0, 0, 0, 0, 0, 0, 0, 0\n0]"] ;
1 -> 53 ;
54 [label="gini = 0.0\nsamples = 10\nvalue = [0, 0, 0, 0, 0, 0, 0, 0, 0, 0, 0, 0, 0, 10\n0]"] ;
0 -> 54 [labeldistance=2.5, labelangle=-45, headlabel="False"] ;
}